{
  "__class__.__name__": "QRidgeRegressor",
  "n_actions": 9,
  "l2_penalty": 10.0,
  "fit_intercept": true,
  "sample_size_factor": true,
  "use_numba": true,
  "ema_decay": 0.9,
  "coefs_": [
    [
      0.48750345287677543,
      0.06155377139170681,
      44.93947779115327,
      -9.378119367531015,
      -0.8923556615526758,
      -1.6414732568777213,
      -0.8923524899480503,
      -1.6414683101197418,
      1.2551171158840648,
      -1.3703342650073402,
      1.255104056178038,
      -1.370334341706597,
      9.377979195314532,
      1.5266975127537954,
      -0.9069919324582556,
      -0.2858966355435275,
      0.07618320840796683,
      -42.87812919865188,
      8.819356624090382,
      -0.7328021110627487,
      0.7046154047875571,
      -0.732798284709717,
      1.5909095642920132,
      0.15525965016399765,
      1.0402136548172363,
      0.1552683948345129,
      1.9264956308148098,
      -8.963044053336368,
      -0.554400265624206,
      0.1330453522198864,
      0.2858999529243762,
      8.819356908455518,
      -3.8638481849176487,
      -1.0275163347131537,
      -0.42649491263675,
      -1.0275144614620946,
      -0.31459044779530554,
      -0.4207765224038551,
      0.832899345532996,
      -0.42077450721787346,
      0.944801565416612,
      4.13681573749473,
      -0.07322856082804112,
      -4.10590290409435,
      43.30892816609262,
      -14.625083675488845,
      -4.73343391019501,
      -60.08815509325358,
      -4.7334415019270475,
      21.611806268371726,
      4.346786693133332,
      -21.23887717586866,
      4.34677884115604,
      60.46108309782442,
      8.352355316829906,
      14.337329906956711,
      -16.24319360006095,
      15.98102591486468,
      4.01341514295471,
      19.355550885962984,
      4.013413925171806,
      2.3061659603327307,
      1.5520813847902617,
      2.3353583186616627,
      1.5520599227729166,
      -14.714031955481671,
      1.6672996278444852,
      -1.730328609222524,
      -1.6725788062278546,
      3.4187340115778664,
      3.468894642132673,
      3.418807065897911,
      1.8465923267391482,
      -3.7401906115959465,
      -1.057504627475553,
      -3.7402933780867724,
      -2.6795495958882047,
      -1.2055279544646966,
      -10.60494642077124,
      3.1014758735443024,
      3.4265276032661105,
      3.46891947335649,
      0.44212098044823506,
      -0.6576275986888649,
      1.5477702632867223,
      -0.6576090456906301,
      -1.436282753794163,
      -17.514523416255482,
      -10.318706474595574,
      10.353612687204226,
      3.4188612173583057,
      1.846715083283632,
      -3.7401923806111026,
      -1.0575295837354317,
      -3.740169702728438,
      -2.6794787781882365,
      -1.2056009310949414,
      -10.604948762119434,
      3.101544369194569,
      -2.5415804734025054,
      1.6237289741423295,
      -0.943067852584861,
      1.6238524742060005,
      -3.9275710278368856,
      -0.46581344026275906,
      -7.543162893792163,
      8.704897512691042,
      2.4728103815730593,
      -2.511401386103369,
      2.4727126153718046,
      -0.2298206063618543,
      0.6214958916150001,
      -6.321840834196662,
      -0.3078177700432786,
      5.216496420801198,
      -2.5113536613226377,
      2.7251672218624736,
      0.7072935026969511,
      -10.641233494223906,
      -7.732793841152711,
      2.4727232316126506,
      -0.22982892104289931,
      0.6214723478168673,
      -6.321842073646803,
      -0.3078424603528619,
      0.2338593287175913,
      17.75657462641,
      -7.865699090339886,
      -9.381347832912937,
      -0.2006372938061878,
      4.663525909715025,
      -9.37985595081276,
      1.6326067100935113,
      -10.84181172341769,
      0.1965755557302387,
      0.7262657752775453,
      0.6147303594491316,
      41.87048322011669,
      -7.337526923255474,
      -0.7308932808183182,
      -2.7891935447455154,
      -0.7308953928289913,
      -3.3089615172724205,
      1.2089216180818287,
      -0.08130602140065724,
      1.208913751463767,
      -0.6010808035027858,
      11.007370258533573,
      1.4600367608708127,
      -3.3526381343813805,
      -0.23876109994301034,
      -7.337526911154815,
      3.068993946766288,
      -1.1136681472237306,
      -0.05958858006540704,
      -1.113665475426611,
      0.07891474075159177,
      1.929808787345465,
      -1.1113294549603854,
      1.9298068951533502,
      -0.9728252756267782,
      -4.987852458194829,
      1.00842785906518,
      4.470054323920776,
      -33.604523372064726,
      8.137750974744987,
      1.4295044732113031,
      53.73507404632029,
      1.429503282835173,
      -24.21736159146538,
      -3.009204508956602,
      21.4132729759084,
      -3.009203880936634,
      -56.53916754675284,
      -9.974341563898959,
      -12.240696384559154,
      13.639563062534693,
      -1.947112197666819,
      -3.5822405326814413,
      -15.398136153469224,
      -3.5822398219277765,
      0.6354457229880462,
      2.945220803936959,
      -1.8792216035290088,
      2.9452191401782066,
      14.154366974504894,
      1.3471007521451182,
      2.723866440830727,
      4.865257902390617,
      2.8997498901662846,
      3.9415191302275367,
      2.8997587778379468,
      2.609332882769453,
      -3.548173961021937,
      -0.9642067769596284,
      -3.548171775806245,
      -2.296421276511165,
      -4.280179333426908,
      7.8623055772125365,
      6.313766217019079,
      -0.40373496506642137,
      3.9414906246531958,
      0.8770447139161182,
      -5.241025366961321,
      -0.6662436936990215,
      -5.240984258856576,
      0.6146858146558448,
      19.22243059287614,
      13.02238410059771,
      -10.220790876758373,
      2.8997501520468556,
      2.6093118600010303,
      -3.5481747420506355,
      -0.9642121799234546,
      -3.5481737569287377,
      -2.296427759422957,
      -4.280147585082839,
      7.862305529575334,
      6.313735541510157,
      3.769540075528947,
      -4.958803433508772,
      1.2247724288526562,
      -4.958804397410087,
      4.11705323664423,
      2.927506120461028,
      12.014546283567093,
      -9.978962816674029,
      2.4613036479084283,
      3.259733228075766,
      2.4612967676076414,
      3.5419508660578516,
      4.725000110221385,
      11.851769668506856,
      -7.868505809994878,
      -5.561794027701803,
      3.2596949049841855,
      -3.6707198900161613,
      -2.7490495476500745,
      17.464506720236685,
      9.46982913342103,
      2.4612983862388975,
      3.541957895463446,
      4.725444276019332,
      11.851771217202389,
      -7.868430187159579,
      -0.16819237010114402,
      -19.043919555339198,
      16.456664687588862,
      9.711680264848372,
      -0.2697920686242944,
      5.917737748949624,
      3.594819434140609,
      0.9956521925649559,
      12.887492125891107,
      0.16437439720074357,
      -0.5531743200824405,
      3.068993532697387,
      -2.040591421739622,
      -0.16145320785646045,
      1.1477205300487074,
      -0.1614555777464604,
      1.6674850097769556,
      0.04619190563387119,
      -1.289021616192983,
      0.04619187584638089,
      -0.7692480196242243,
      -1.629402224984183,
      0.06665976943915881,
      2.4456701836748453,
      8.137751602664451,
      -1.9471138590894992,
      -3.582233174727587,
      -15.398148265074779,
      -3.5822339587899332,
      0.6354333686051522,
      2.945223554191611,
      -1.8792213596450646,
      2.945223591870039,
      14.154380564501224,
      1.3471091404671607,
      2.723866552920982,
      4.86526087059165,
      3.7564414981975194,
      2.6815811271138705,
      8.386883136112328,
      2.68158091780719,
      1.3623944420953367,
      -0.819771927144228,
      -0.6019191439846943,
      -0.8197766880086302,
      -7.626400497690738,
      2.7367277680532918,
      -1.4397181112181645,
      -7.63847780648496,
      4.627206989347125,
      1.8762372247515988,
      4.627204391009448,
      0.008208056032200484,
      -4.804431171171542,
      1.164885034208083,
      -4.804429843746242,
      -0.7027666980120414,
      1.8413363864226708,
      6.26335444467782,
      -0.7159134727412475,
      -2.422029087107855,
      1.8762440074898414,
      -3.1975166425460797,
      -0.26518702584255976,
      2.6336218701318934,
      -0.2651795628681415,
      1.8581151145538948,
      -0.3323665711149738,
      2.4549609793035545,
      -1.4210958217015865,
      4.627204123295611,
      0.008209497962860163,
      -4.804437502969178,
      1.1648812574936303,
      -4.804437120288059,
      -0.7027717798153492,
      1.8413409166191472,
      6.263353696820935,
      -0.7161168347685587,
      -3.7696943435110946,
      -1.029815708878597,
      4.148118830865627,
      -1.0298107223614246,
      3.5757472498426672,
      7.188703459662855,
      2.3218499957465157,
      -8.885568893438801,
      1.8428170996720445,
      -0.06146035475769153,
      1.8428228096598172,
      -0.8263233487982473,
      -1.907787229954092,
      10.38294747143491,
      0.8880554821690496,
      -3.0447643040367156,
      -0.0614447291900561,
      -1.5302483031343996,
      -7.509323610187676,
      2.748603845645593,
      9.352223713688488,
      1.842799856376387,
      -0.8263232882284892,
      -1.9077886861244526,
      10.382949155962704,
      0.8880489581919517,
      0.1871466581609068,
      0.01146916229945863,
      2.615485686326352,
      1.8874278174579475,
      -0.4148109899739692,
      -2.2478861514948307,
      0.51157599108454,
      0.854698758489627,
      1.9636286752601069,
      0.3702632050950455,
      6.766076502101967,
      -8.354823644737618,
      -20.901351881940847,
      -56.75897626583952,
      -20.901343720754163,
      21.976587594714847,
      21.846329373762398,
      -20.91214691517454,
      21.846295852775434,
      57.82337270323256,
      0.8439591352615544,
      -11.064569607000433,
      -3.741387874076687,
      -7.721410581284388,
      14.822311250741585,
      19.166341864935873,
      14.82234466494882,
      -7.422155297454012,
      -13.754196987135787,
      10.589010849599182,
      -13.754197401109497,
      -15.999393734616923,
      0.2079463226682254,
      2.2537549024432173,
      -9.173769920724427,
      9.29230925966271,
      14.94522604839739,
      9.293820052920053,
      6.339414087430374,
      -5.2612975394226345,
      -0.8356683344001188,
      -5.261299220524547,
      -9.440634339602305,
      3.577901502926996,
      10.015618868181162,
      5.920173147091112,
      81.30835539162977,
      14.945364682418209,
      -27.935745426430877,
      -13.040433498368067,
      13.476956118958528,
      -13.039774682998939,
      -95.76169694278789,
      -10.927264496590237,
      7.73192316765714,
      4.322292631909326,
      9.299608033748381,
      6.339418367458269,
      -5.261297304567847,
      -0.8359765666770759,
      -5.261299879013866,
      -9.440938972820074,
      3.573069925663421,
      10.015618859217167,
      5.919984694578259,
      11.357991828537532,
      -5.1400720588546776,
      -25.135377278392077,
      -5.140073325038984,
      14.155404128660221,
      4.25467251000965,
      33.79719516464354,
      -25.20704956784422,
      0.6208168647888015,
      -0.06556389895459913,
      0.6206380652196616,
      7.836557462695356,
      -3.56846786536211,
      19.25129089906863,
      -5.551018790152992,
      5.201415005212121,
      -0.06559992096109768,
      -33.41239084060024,
      -4.996701725783631,
      19.730564717357186,
      25.753808131168945,
      0.620636936938492,
      7.836278656111756,
      -3.568472786742402,
      19.251290184437476,
      -5.551806978071989,
      76.50536339327543,
      10.188631721046644,
      45.7958274428092,
      -3.7784880492395536,
      -8.57836670837135,
      15.945474783052484,
      -2.0259227674445044,
      6.8365890693490154,
      -1.1398543371206773,
      -8.427917414741527,
      -0.4863272741277751,
      -32.14378645210845,
      -22.598051637592256,
      -32.14378791118905,
      6.456435470834367,
      29.675119619726797,
      -6.050441757453502,
      29.675120176384233,
      23.003687027180764,
      -4.093733758186765,
      37.66966696518752,
      3.5468827898588726,
      -7.487194066776432,
      -13.337724751889386,
      -7.487180331376138,
      -6.039175893168209,
      -5.5947050273437835,
      -1.5333101990120659,
      -5.594702195468593,
      5.776220955231057,
      -6.469266604013645,
      -50.681171595474545,
      -7.405546160244453,
      -35.99391610847286,
      -13.33777307157319,
      -0.7960094422451625,
      4.09168909604915,
      0.9557979723989718,
      4.091740906264854,
      36.129221154406025,
      -7.414247036820635,
      -24.018329299534987,
      18.08231584030872,
      -7.487167918859852,
      -6.037851809497353,
      -5.5971933170448604,
      -1.5333953331866015,
      -5.594706073734047,
      5.776715995714751,
      -6.467113912375557,
      -50.681154352634586,
      -7.404870047019328,
      3.3961804042322905,
      6.9122646427516745,
      5.190804807265852,
      6.913987641915157,
      9.382682598299139,
      -4.383925305827127,
      -27.16410919198372,
      15.031762656686734,
      14.216072471233899,
      0.4834600613124571,
      14.217330796990545,
      3.3000705140480426,
      6.810639938112761,
      -46.304632939402275,
      6.661837290041697,
      -1.6766106917130372,
      0.48331754990072606,
      2.5553377425612958,
      4.659450047329788,
      -30.3602408560252,
      -15.566139891657347,
      14.217326086685777,
      3.300237335218539,
      6.810512693950813,
      -46.30463253582179,
      6.661054875030566,
      -24.204783164153035,
      7.669823109435443,
      -33.506025366609755,
      -18.618098231808062,
      1.9016712235445812,
      -30.014632182201062,
      0.42584597125204343,
      1.4302896390527466,
      -5.720979220558379,
      3.0181154067539375,
      -10.525486383698446,
      -15.384609019224385,
      -10.492818226420457,
      -9.213869725849433,
      17.258664453825983,
      4.979886399164917,
      17.25870969751402,
      11.202098628766857,
      9.938341457149017,
      0.7728622186717644,
      -18.335273008741712,
      -9.740038515336492,
      -15.386519710204487,
      -3.4380680445787966,
      17.262991933176245,
      -1.4366187339301428,
      17.263027210314306,
      4.8045347409520565,
      -3.425591952633332,
      -15.861536908775495,
      -1.7685407682797756,
      -10.492822749440965,
      -9.214799135506217,
      17.25868132911937,
      4.979837839473229,
      17.258726450131192,
      11.200186695872862,
      9.93529069448856,
      0.7728579410713282,
      -18.362667535890566,
      -0.12164871885989192,
      10.428780657147595,
      -3.368259133416821,
      10.428768913574437,
      -0.026098877832402056,
      -5.6365613671536545,
      -35.140990018880615,
      3.924594315298225,
      -14.934357173560485,
      -3.9139870481224857,
      -14.934344168125598,
      -10.754199225044236,
      -14.070436743218542,
      -11.308760565422965,
      23.138850088007928,
      3.672340271228527,
      -3.914026126487626,
      1.809222045738883,
      4.640979866890112,
      11.728631324846368,
      -4.943922916012683,
      -14.93432290028587,
      -10.754272101413099,
      -14.070424161998437,
      -11.308759630061392,
      23.13897900476544,
      -3.1089427394837785,
      2.562572302437619,
      -7.551281644836276,
      0.7367361605497884,
      1.3598190716304366,
      -19.22818406940033,
      12.50180785532427,
      -4.891256920300061,
      -18.638367369421644,
      -0.785330441373161,
      1.0272188289585489,
      -9.718376614347159,
      7.329030496229723,
      3.578341914027547,
      -9.781931513058156,
      3.569694854655338,
      -3.355758603181549,
      16.994573597047474,
      6.389601722070668,
      -9.33986815712522,
      -15.395457058086121,
      -3.398210317044899,
      17.285118111555477,
      -1.4753346161057903,
      17.28834239652205,
      4.89460794705503,
      -3.43411375631963,
      -15.861575184761405,
      -1.7247761786013052,
      8.116527506541615,
      2.433657530975073,
      -6.941784146820563,
      2.433615136704084,
      -6.059732096580101,
      -14.685762590686013,
      -12.369394106259048,
      9.503350927392136,
      -8.773539059179367,
      2.4049514691121745,
      -8.779423023582183,
      1.2276088714011093,
      4.135376766233273,
      -3.9515234174526266,
      -1.207654013813979,
      1.8835736345863945,
      2.40811672849054,
      4.621258798930498,
      15.565364429700494,
      17.203736799923742,
      -15.73841481145464,
      -8.779506424326877,
      1.2277169684710059,
      4.124315806432083,
      -3.9515272581751613,
      -1.1989530609007073,
      2.096454478280557,
      -16.198777639479204,
      -1.5556777528529846,
      3.234743430710058,
      1.922438884442398,
      -2.4463935993617762,
      7.447308385610858,
      8.932363723020384,
      2.148762848225764,
      -0.9543017761745483,
      -10.492814165856581,
      -9.214771799318974,
      17.258702081179752,
      4.9797983413388485,
      17.25869672787012,
      11.200238530460853,
      9.935318671401227,
      0.7728579513214477,
      -18.36268680765938,
      -0.06000478719287361,
      10.42877366959408,
      -3.392710914095854,
      10.428755087527236,
      -0.02607665379115065,
      -5.636109552210626,
      -35.14098439610121,
      3.9257847535170955,
      -14.93433638337404,
      -3.9140045923587024,
      -14.934344451872079,
      -10.754211572796336,
      -14.070399421435791,
      -11.308760384095255,
      23.138996409188376,
      3.6764951984991536,
      -3.9140124353053274,
      1.8090798249533182,
      4.635411875294464,
      11.728631564844987,
      -4.944690263899879,
      -14.934322616729753,
      -10.75421846696207,
      -14.07046115842983,
      -11.308762052563697,
      23.13898101748488,
      -3.1158148623653186,
      2.572765372446022,
      -7.551282377505838,
      0.73035667024408,
      1.408555318121906,
      -19.228165691562996,
      12.510927579433869,
      -4.89125685833113,
      -18.638520951382727,
      -0.7686005760427702,
      3.3799194754107726,
      5.3623681689745455,
      -8.570550772636622,
      5.362886603276861,
      -13.198928049761243,
      -15.61527747575631,
      -26.0830223349495,
      25.24366722656989,
      -4.259337662945919,
      -2.104452588806671,
      -4.2487118064860745,
      0.7887776898858729,
      5.282617326355723,
      -15.44487712123511,
      -1.776997691819846,
      11.416444348131,
      -2.0801503830050256,
      9.603960112248892,
      16.80115871054308,
      -2.1418945422522997,
      -29.829364308700576,
      -4.248755078088198,
      0.7876879320894717,
      5.269014090167754,
      -15.444896857861812,
      -1.779282296907564,
      2.445586692467382,
      15.882069342451892,
      -15.85508569430025,
      -13.782417182463691,
      1.1275997513002702,
      6.03151515084578,
      -9.529688981306618,
      11.90044976368103,
      -17.562145447462413,
      -0.6088717668544723,
      6.804997939238856,
      -0.6596528652321663,
      6.7377171424815065,
      3.8682807738034852,
      9.428253601322586,
      13.050884083497575,
      -12.878441239837755,
      2.109771455155266,
      -0.656563327486437,
      -2.452519676611602,
      -4.259190738082365,
      41.78511714033426,
      2.759062381067096,
      6.737698680563779,
      3.867345458380249,
      9.425314189168336,
      13.050884115427584,
      -12.883867667732735,
      -2.7480210239318166,
      -3.211597952760499,
      30.29200538290612,
      2.192361154422072,
      -0.8256695551562332,
      27.382112332782444,
      -12.909873793517178,
      6.68621815496599,
      -9.627374866143416,
      0.7809631287632428,
      -11.36371986173251,
      2.1309823857360737,
      -1.8979325317571694,
      -17.419429083513535,
      29.31125447615399,
      25.554248424667552,
      -0.6514895182720475,
      -2.347906475836821,
      -4.315376791778456,
      41.78521252214332,
      2.6980143182691028,
      3.029230178113232,
      -16.081124773751604,
      9.966163725870118,
      11.425882864587212,
      -0.07709672878591745,
      -12.348504751407177,
      9.761466509199735,
      12.697304164237826,
      10.79856999175854,
      0.7216615911550134,
      6.737717077300586,
      3.867365025321422,
      9.425343788132622,
      13.050880660972158,
      -12.883853341786962,
      -2.762367777778799,
      -3.196399566424133,
      30.292008986925946,
      2.1900839301475514,
      -0.8294037439197032,
      27.38210437289629,
      -12.909777606604795,
      6.686219721587367,
      -9.627391327006745,
      0.781017648382534,
      3.384595341085946,
      16.086024776072136,
      -4.333714714446699,
      -5.6028047339938745,
      -0.5070940903996272,
      -3.8701355135487026,
      -7.447765319389485,
      15.665385171759985,
      -8.912343054502962,
      1.002979636453368,
      -1.8264811382679527,
      -2.462714168448481,
      1.7212982315440688,
      19.492876696339493,
      23.192492437417286,
      0.23901855278249248,
      3.719624704788235,
      8.327500428137915,
      -0.2645389469682305,
      -2.0637600792173454
    ],
    [
      0.7993231431609106,
      0.610809621309708,
      38.26493479015342,
      -9.909524582056344,
      -1.2071437856172755,
      -3.2052815126579723,
      -1.207142725104658,
      -3.2052905892205947,
      2.3138689094625677,
      -0.5146732485334189,
      2.3138779967605103,
      -0.5146697726494274,
      7.423247093350127,
      2.3334589478387056,
      -4.048892091304519,
      -0.6163067898234346,
      -0.243716744264314,
      -34.419240981102725,
      9.035443652719698,
      -1.0667728432818475,
      1.4253681455678313,
      -1.0667737734433769,
      2.8785430730788613,
      -0.2606026426937913,
      0.35178842335126265,
      -0.2605958254597403,
      1.804960638677074,
      -6.823841621709561,
      -0.9090773523441509,
      3.2921877894266096,
      0.616309124044819,
      9.035443654633331,
      -6.150140539306158,
      -1.7631669393003182,
      -1.675767382319858,
      -1.7631754182650476,
      -0.5653168196946159,
      -0.14613201812449184,
      1.0390742593689457,
      -0.14613269624510605,
      2.1495231327810282,
      3.5141917356259817,
      0.28520902224874356,
      -2.5605111370688345,
      35.12187087378272,
      -12.058990862287995,
      -8.756209383963494,
      -54.75165625185829,
      -8.756214868844474,
      14.814002233957783,
      8.184081825439216,
      -14.950513239317997,
      8.18407915395708,
      54.615126506590975,
      8.29142087090337,
      13.019693085234003,
      -18.82780479504303,
      16.8003746450341,
      3.947933875594009,
      24.671886078657742,
      3.9479353708913165,
      6.656378082903204,
      0.0976235823901188,
      -2.4194742280029073,
      0.0976208679167425,
      -20.434988827003576,
      0.976778727057295,
      -3.1091493441146776,
      -0.9835093841564153,
      4.625847121706335,
      5.50703090665293,
      4.626292388124219,
      3.312679061126468,
      -5.390621473613461,
      -2.259489174663776,
      -5.390371074136301,
      -4.454097408567126,
      -1.5867705383215305,
      -10.573362320714383,
      2.7758873193050344,
      7.655695793057564,
      5.507050044167004,
      1.8284046082029968,
      -2.333313820797252,
      0.27408531386327506,
      -2.3333419339077563,
      -5.553273333506013,
      -14.497611051720128,
      -11.033254399440315,
      9.847187426865517,
      4.626243129686231,
      3.3126130740335524,
      -5.390496623824635,
      -2.259464296212218,
      -5.390399797078745,
      -4.454112342172526,
      -1.5868008027624305,
      -10.5733652758042,
      2.77579158384895,
      -3.9987654055129003,
      1.8733657621200328,
      -0.6615012208141005,
      1.8734530132690161,
      -6.4886236474003685,
      -1.0024648855176728,
      -6.791005729007718,
      2.486257178453555,
      3.6549388129152423,
      -2.9770323981499858,
      3.654859342275391,
      1.2295174842799097,
      1.0535990729017626,
      -4.299005574897733,
      -0.5574263875454627,
      4.851132182789301,
      -2.9770488480133306,
      3.915483810706966,
      0.9822291341021586,
      -9.776908895629024,
      -1.4317864712445134,
      3.6547580650400597,
      1.2295050715655718,
      1.0535282888198054,
      -4.299006252364456,
      -0.5574404224423601,
      2.9798854743748753,
      14.477709043222568,
      -5.534656913689453,
      -8.792633535475066,
      -0.7430214543539553,
      6.269801671776987,
      -8.842173660860357,
      2.411286206120608,
      -5.33864776419055,
      -0.11764719406735186,
      1.1838132895005493,
      0.40969853734373773,
      33.70775268763506,
      -6.655278441623366,
      -0.5599914679158341,
      -2.3649965023640473,
      -0.5599896701677237,
      -3.485442130365543,
      1.9398679712310252,
      -0.5602725643095373,
      1.939866796594909,
      -1.680726011401352,
      9.130844203452522,
      1.9268321457443374,
      -6.660000685351166,
      -0.3844908895646991,
      -6.655278506072591,
      4.55718194538952,
      0.21479220697524276,
      0.6180236744676928,
      0.21479240012146059,
      0.17494609343684425,
      0.9459378743806052,
      -1.0756553791841394,
      0.9459363959793974,
      -1.5187354227614656,
      -3.73110513838365,
      0.4607832186940481,
      2.4674779950620325,
      -23.030089365870268,
      5.976831470045473,
      1.006858097323573,
      44.78307128166623,
      1.0068580930387325,
      -17.7911050768907,
      -2.1272791044355874,
      15.466566806524789,
      -2.127280427439861,
      -47.1076083306561,
      -10.127231247487169,
      -8.38672501750792,
      14.03626762631159,
      -3.5393500036189005,
      -5.569209461204576,
      -18.889281236068847,
      -5.569209422947024,
      -2.4628448745352163,
      4.915415846172937,
      1.185106804781344,
      4.915417210356988,
      17.61153349289223,
      0.8258291837876647,
      3.8825162626673957,
      4.859637619683477,
      3.0360717456974378,
      1.3718847834560999,
      3.036093844736783,
      -0.5675256179785225,
      -4.129652018489784,
      2.318106011545779,
      -4.129652268043014,
      0.3786742367638012,
      -4.914248978189625,
      6.455588013429699,
      6.837798255936555,
      -2.809004284534346,
      1.3718774664958104,
      -0.21786017954430897,
      -2.767201541970132,
      -0.08674234828316463,
      -2.767210508815197,
      2.504669987699492,
      14.440287008243505,
      14.522492768831844,
      -8.58306542150923,
      3.036067330626402,
      -0.5675171394205603,
      -4.129656007918843,
      2.3180999150606714,
      -4.1296554454698775,
      0.37866804559414585,
      -4.914266223200459,
      6.455588409940647,
      6.837817839306109,
      5.015396818394455,
      -3.2408790677199475,
      0.5529460437114468,
      -3.240876800748465,
      5.786058100611144,
      2.0345876693730105,
      12.869747473296473,
      -2.597921603452936,
      3.267433748392629,
      1.3997007252061606,
      3.26742708375964,
      0.9259294542724104,
      5.247545127219497,
      10.938698688976567,
      -7.99726825362737,
      -4.824703353110908,
      1.3996952947617851,
      -4.185458713043575,
      -1.995258107385326,
      16.552238173617933,
      2.2860591855183188,
      3.267416786870541,
      0.9259305558736369,
      5.24720008730778,
      10.938698096385606,
      -7.9974345338568655,
      -0.9040446722758689,
      -14.401120097259426,
      14.899496148683312,
      8.271308334067001,
      -0.16488711878542708,
      -0.3608296228410518,
      3.3335601663685055,
      1.020502382498439,
      5.519278022067327,
      0.3240467061673248,
      0.2011113571103646,
      4.557181681200827,
      -3.254246174816065,
      -0.647151096699099,
      -0.8402890403177677,
      -0.6471519718844793,
      0.2801614262944901,
      0.37400890154950717,
      0.04560385482633303,
      0.3740076854183384,
      1.166051717372724,
      -1.7075921456167968,
      0.4066405069594085,
      2.6111157865781607,
      5.976831635930933,
      -3.5393508504087787,
      -5.5692050619115125,
      -18.889285338026436,
      -5.569205454357451,
      -2.4628416973032774,
      4.915419505777633,
      1.1851047967174957,
      4.91541925509671,
      17.61153754578291,
      0.8258289967584657,
      3.8825163099292923,
      4.8596305172093945,
      4.058461035431969,
      4.188919951230023,
      13.15451890695049,
      4.18892014296151,
      1.9735694462623679,
      -2.828066150253195,
      -1.1804314546763122,
      -2.82806713053205,
      -12.361375376238525,
      2.3844618675355673,
      -4.036988655269565,
      -7.278382203272168,
      3.7614035809236297,
      3.517129612080433,
      3.761404301230152,
      0.3116660991031483,
      -3.0590897200620626,
      0.6664573562701102,
      -3.05909016182535,
      -2.5388054116357592,
      0.4529244813544251,
      8.748469240036355,
      0.266410453740042,
      2.588042176531254,
      3.51712933148714,
      -0.4585378594001154,
      -1.1422878680056232,
      -1.113346476129831,
      -1.1422867604843217,
      -4.159921645352295,
      0.39723062658644215,
      0.6261504929523573,
      -3.196929863733553,
      3.761400524250252,
      0.3116654978302969,
      -3.059092377422989,
      0.6664585711848083,
      -3.0590902801320166,
      -2.5388052048106955,
      0.4529136663804085,
      8.748469625686278,
      0.26657522325001964,
      -1.4863057250126372,
      -1.4076925676742544,
      0.7756223304763881,
      -1.4076928397774333,
      -0.25222370411750805,
      6.786032567699969,
      1.1446593519147257,
      -7.851739789250812,
      0.46408897599858995,
      0.5054424049861744,
      0.4640950976022911,
      0.23979853825519654,
      -0.502656433641307,
      12.034561060119364,
      -0.14326935829561266,
      -0.9124177086022817,
      0.5054485390083081,
      0.9766094468263175,
      -7.124761233945754,
      2.41739901505451,
      8.305316886549889,
      0.4640945637636253,
      0.2398048725543937,
      -0.5026616303043473,
      12.034562152556186,
      -0.1432587212772043,
      4.884452789643403,
      -0.7357052976848512,
      2.9359081550069623,
      3.65019724007168,
      -0.684984477379227,
      -8.49888189190624,
      0.28313976590519585,
      0.8404321113755885,
      1.2083828664252059,
      -0.21196058843724472,
      6.758687270997994,
      -7.187974250081381,
      -26.20921329765446,
      -44.65911723502338,
      -26.20936479179889,
      19.19282012007192,
      27.05750362250803,
      -18.33092935572147,
      27.0575218150969,
      45.52067181629829,
      1.3182340334196145,
      2.6545716649928726,
      -3.8286170698001314,
      -6.5986569504633446,
      13.962265988390826,
      20.27902668428408,
      13.962220884612769,
      -1.6442500069925066,
      -12.829701806801914,
      4.687982679169062,
      -12.829701852118264,
      -17.23547286333096,
      0.46769604559867595,
      -6.818716937647087,
      -9.158425339004785,
      16.9392489451042,
      22.995940815919212,
      16.938767301593806,
      7.0760048144091945,
      -17.167676841489985,
      -1.5354131978700765,
      -17.167674757569994,
      -17.45217061561646,
      4.054560432359471,
      1.0590045613008385,
      10.762835206643222,
      84.28745018192164,
      22.996446362567475,
      -15.249228641464152,
      -20.91443121115051,
      1.0772227634414189,
      -20.91462554958228,
      -98.45132763520473,
      -9.663095363180062,
      2.0797282018650893,
      6.64663415499123,
      16.945119936824348,
      7.075281131708647,
      -17.167676902981306,
      -1.5352983841714551,
      -17.16768022291722,
      -17.452424396046293,
      4.052189653833621,
      1.059004110064392,
      10.766118891746205,
      11.683526601766857,
      -6.0363541181766,
      -26.098405209558035,
      -6.037431930459808,
      0.8301639029074057,
      5.411113041073017,
      25.749533912597467,
      -27.583830775277317,
      9.505457139122745,
      0.7345741373152138,
      9.505520757828185,
      15.61814285269316,
      -4.025491255141241,
      21.467236939539248,
      -10.345165808617981,
      6.301980387196503,
      0.7345364897386564,
      -20.875199523621866,
      -6.028667553521121,
      19.182216691771327,
      28.052548305459798,
      9.505521109100703,
      15.618145642623631,
      -4.0246706291502985,
      21.4672372127847,
      -10.345049737905658,
      78.40985923082945,
      9.05049225200546,
      42.85200598887861,
      -6.174741071728549,
      -10.549647862664761,
      9.067422644759898,
      -2.1267952907493433,
      8.769583842820166,
      35.654388253498794,
      -8.555599508155682,
      1.9881535709453884,
      -30.30864559857626,
      -23.83639836857641,
      -30.308642265790674,
      6.7072027300979205,
      28.10685347339444,
      -5.958732694182796,
      28.106847689224427,
      24.584142412278023,
      -4.493508613831937,
      31.33786058119477,
      3.867530575200613,
      -1.892492222812864,
      -16.118968412475645,
      -1.892807549938723,
      -8.939356123094328,
      -9.033495062408438,
      2.338486507313075,
      -9.03349520010381,
      9.512702399942459,
      -3.79449079977638,
      -31.48897845744491,
      -8.903460182011187,
      -50.05364315587979,
      -16.118811994250983,
      -5.203362274386964,
      9.35404156378528,
      7.88329018727377,
      9.35383666605038,
      52.745161573490854,
      -6.000526079470828,
      -15.773670689482262,
      16.658457543412464,
      -1.8928061918006065,
      -8.941380852049289,
      -9.034553758532965,
      2.3385225272754924,
      -9.033496973651095,
      9.512726493149302,
      -3.7959629243564486,
      -31.488976551824674,
      -8.906593790388559,
      6.901026613436727,
      9.528957277726084,
      3.4926732647646883,
      9.528977062972926,
      15.590766431222992,
      -4.237296766441382,
      -21.426099591396184,
      14.877026880164118,
      13.050088981267654,
      -3.1009882634211956,
      13.048441998808784,
      -2.926880324011981,
      4.141099574603775,
      -28.082281487688252,
      8.169097427380441,
      2.6952059541490874,
      -3.100988113018043,
      -1.703716861242116,
      4.48564972449182,
      -33.55659111734284,
      -15.396407068971515,
      13.04844286826142,
      -2.926883397608739,
      4.1424956611069055,
      -28.08228136145556,
      8.169323170773866,
      -38.85967992397594,
      6.263597893326914,
      -39.209027683617116,
      -17.19408010751713,
      2.416948602825259,
      -16.208153727158056,
      0.27761214582303495,
      -0.8703294732877132,
      -12.348153544799347,
      4.145072087333159,
      -12.321651283342897,
      -14.993451899828699,
      -12.337594555711158,
      -6.573452995263966,
      21.557735424354128,
      1.6607383365659252,
      21.557762789114747,
      10.01756401625248,
      11.887662278001306,
      3.4859972528074556,
      -18.466330030467084,
      -14.745846303168818,
      -14.994548112344384,
      -4.682885020273267,
      15.3339773234962,
      0.8168672291963612,
      15.333969270697326,
      10.75588106438231,
      0.386052468405899,
      -23.190184184218726,
      -3.9349291220797413,
      -12.337659884794771,
      -6.5718863402221235,
      21.557718591365578,
      1.6605042181336565,
      21.55772866304426,
      10.009606808362857,
      11.902863003008704,
      3.4859948397136282,
      -18.48137318979449,
      1.2496071147007735,
      5.553052545780797,
      -3.311369938279027,
      5.553831110054748,
      2.7132907496375007,
      -2.451568897698925,
      -42.41250822446727,
      1.1269593476730873,
      -20.122969728584128,
      1.91595884688881,
      -20.122993655558957,
      -7.858643615982143,
      -16.8651022952638,
      -14.652859680573243,
      23.857435044517842,
      3.7752891389686165,
      1.915961486554918,
      -0.4388366856213234,
      2.487547465063962,
      15.346863786795092,
      -2.751507397170086,
      -20.12298817887858,
      -7.858619096998449,
      -16.865240443452635,
      -14.652864506362715,
      23.857384715567015,
      -8.567953680504813,
      -0.5287337530860353,
      -3.875571119661286,
      2.2860894012290895,
      2.3384218391533547,
      -9.192699768411243,
      12.008811899205694,
      -3.286462712337926,
      -11.929705379806675,
      -0.36875258328227317,
      -11.090178131216513,
      -14.707757138263462,
      2.9052496244689543,
      6.606348479230773,
      0.37528512099349265,
      6.608256413689333,
      14.245881474029796,
      13.225494967842666,
      11.348317244323088,
      -4.731266239957181,
      -14.976888129982992,
      -4.688492092626004,
      15.327565666934163,
      0.8149966237596333,
      15.326350272991512,
      10.795682992172061,
      0.46922883990112585,
      -23.190126095568274,
      -3.914743086082277,
      6.175714801621583,
      2.453537760561448,
      0.8185884412516884,
      2.453545948762347,
      4.063509718138795,
      -13.20119549174274,
      -8.710248437209815,
      13.115311024826946,
      -7.12536191529179,
      1.5791242038756876,
      -7.125456983015924,
      -2.587732490805565,
      0.16614115165266,
      -7.81997496197915,
      1.5843417857565787,
      -4.542424591411001,
      1.5791679190576655,
      -4.097653268436667,
      14.943283446335723,
      14.10619028861438,
      -18.766886124019553,
      -7.125403901678419,
      -2.587740184483017,
      0.17201579597955322,
      -7.819977995509191,
      1.5867335694131675,
      -14.225719142151375,
      -11.374373264022648,
      -5.952036457359382,
      -0.9982186815970961,
      3.048473209348302,
      12.104269288987537,
      7.534496142264296,
      9.490012126833419,
      -2.3134523169209285,
      0.9180331272361744,
      -12.337646136109605,
      -6.571890693815346,
      21.557720188936862,
      1.6604905928770892,
      21.557733048570093,
      10.009616585259229,
      11.902812133810638,
      3.4859987435092945,
      -18.481417115141426,
      1.3589616234350472,
      5.553846584639104,
      -3.3138791274994635,
      5.553849711675167,
      2.7133124721806867,
      -2.4614466550613945,
      -42.412506940185565,
      1.1309190036324774,
      -20.12300668040864,
      1.915963752788156,
      -20.123032180542694,
      -7.858585155475946,
      -16.86510539621537,
      -14.652863966213657,
      23.857510319886725,
      3.7745641433454558,
      1.9159714948474722,
      -0.438804933888724,
      2.48812143065599,
      15.346861423303528,
      -2.7493104626833205,
      -20.123010628169958,
      -7.858612261463852,
      -16.865045210379684,
      -14.652863560943144,
      23.85746288139892,
      -8.565660348744784,
      -0.5249933456767446,
      -3.8755720848164468,
      2.2720860578695574,
      2.4815563556499507,
      -9.19272988774208,
      12.010723590634873,
      -3.2864598684937354,
      -11.92974526148418,
      -0.3541477627776202,
      -1.1155330462234372,
      5.771038210727685,
      -0.35821631571955503,
      5.780842186426634,
      -7.680038629821485,
      -14.853516581982609,
      -21.056466172691536,
      17.64369170330407,
      -0.43924787840933066,
      -3.886927222358494,
      -0.4309081548055854,
      -0.43552469653167053,
      2.1060301856007495,
      -15.63587282780747,
      0.6391056328780969,
      4.2765099486308955,
      -3.8639619560785796,
      3.0792645694264693,
      16.686995907909616,
      -3.667840430076845,
      -21.314764355110626,
      -0.43089118349967215,
      -0.435271425216453,
      2.113626132400457,
      -15.635832459097436,
      0.6320223539867162,
      -8.768101057813794,
      14.884769745534829,
      -16.013923988577808,
      -16.98101090193419,
      1.5393396604345984,
      23.50259261545915,
      -8.657219810716258,
      13.8737284919513,
      -12.019114518405354,
      0.5085769320044883,
      10.20682726605743,
      -5.093463831439415,
      10.162947326300687,
      1.5365971328760017,
      11.252781017314145,
      14.595044820837778,
      -13.84287081173614,
      3.7888575953046706,
      -5.098937964337435,
      -1.5530636299956209,
      -2.0645540836711964,
      45.19208259878475,
      0.9583835308111046,
      10.162947187229543,
      1.5427435884885816,
      11.238515723709247,
      14.595048275860913,
      -13.842462256860923,
      0.6760757151601827,
      -0.09715599067447597,
      37.37659262777222,
      0.010085624181862318,
      -2.3416098643779457,
      16.83627832514318,
      -12.39042933830989,
      11.83057114028161,
      -11.134264344580508,
      0.5551869610702831,
      -8.506446050714567,
      3.8473514265212945,
      0.20244819596703412,
      -16.308896713336516,
      24.75528321919003,
      17.70013048471934,
      -5.109418540639201,
      -1.6338672683448605,
      -2.0926141524625597,
      45.19220442820514,
      0.9390957588996564,
      7.224360508466478,
      -14.554695800853121,
      6.980476829468328,
      15.210819018752915,
      -0.01867343372073421,
      -25.333642248574307,
      8.741047239726674,
      13.192114702824536,
      3.009399367015481,
      -0.13936660872710926,
      10.162954221037259,
      1.5427437740239447,
      11.23846947420641,
      14.595043669951439,
      -13.842441579537951,
      0.6961146924142669,
      -0.07333829947754002,
      37.37659102956729,
      0.010204872427534095,
      -2.375959816423703,
      16.8362787463099,
      -12.399232933828584,
      11.830568910997336,
      -11.134264534116213,
      0.5552108660330414,
      12.754007570167076,
      11.75413519993172,
      -3.0816735895477256,
      -0.8316925393943134,
      -1.4006979675637996,
      -13.934976767244729,
      -7.446926973879466,
      17.575831394841806,
      -6.696247565502449,
      -0.3408400089686629,
      -1.9814014699109062,
      -3.715733900449491,
      2.066579687411671,
      5.34976049715556,
      21.877642544138446,
      0.5631210428487549,
      4.893505553015932,
      5.564321497067893,
      -0.9090543597378542,
      -1.8289084152345472
    ],
    [
      1.192823544879873,
      0.8104431715006185,
      43.955563409398906,
      -9.905150678257593,
      -2.1082536751656162,
      -3.6435691935147574,
      -2.1082592064817463,
      -3.6435745824728305,
      3.146135238526025,
      -0.07356962431558267,
      3.1461301310450827,
      -0.0735637282599854,
      6.390181255701344,
      2.6349648370954353,
      6.12361730340847,
      -0.9899909171268705,
      -0.38862678203737056,
      -39.72023577956555,
      9.53790001269503,
      -1.0714062383932452,
      1.54165751113818,
      -1.0714152411317828,
      3.710220491716424,
      -0.17792371390438427,
      -0.17023586564275742,
      -0.17792647994218716,
      1.9983169983250424,
      -5.533222215915457,
      -0.6257391810327158,
      -7.268464174163424,
      0.9899906576238018,
      9.537899939506653,
      -5.963235915981907,
      -1.624595685383892,
      -2.4449984722305493,
      -1.624598237522844,
      -0.9716151798978802,
      0.23350679974714392,
      1.915903860627533,
      0.233510169747444,
      3.389295238046343,
      3.849673490541348,
      0.14181487469707846,
      -4.446268844427009,
      32.98798649609099,
      -8.226941945066546,
      -9.446778934541644,
      -61.41442898126164,
      -9.446759436856292,
      18.496816152004172,
      9.209846818692725,
      -19.399983307781568,
      9.209811505489444,
      60.511239567499416,
      6.802759240861846,
      20.690419216795267,
      -15.158846771186266,
      14.306770419108174,
      3.1742350717146026,
      22.42538665330089,
      3.1742238208024993,
      4.417708046905722,
      1.5564991345770585,
      -3.842715804350564,
      1.5565008284661646,
      -21.850256716322594,
      3.315184315856781,
      -3.303197192435206,
      1.2803374517183075,
      6.343627836315811,
      5.649256369223032,
      6.344522477281946,
      1.8167432645267483,
      -7.663708661140378,
      -1.5069021823550208,
      -7.663719063300191,
      -5.339364993066361,
      -2.1367909011268456,
      -7.660465049638832,
      3.7085995305627675,
      8.81336935301021,
      5.649479928136848,
      2.1891614915888753,
      -3.60955623007911,
      -1.9583042672723066,
      -3.6093348470285065,
      -8.580776870590295,
      -14.166470855966129,
      -12.391093709851601,
      4.687770434170876,
      6.344808412270048,
      1.816718759571984,
      -7.663801431076949,
      -1.5069154815413692,
      -7.663552099131801,
      -5.3394432356787735,
      -2.1336754689339568,
      -7.660460353853949,
      3.7082110031590805,
      -4.434442397607255,
      2.1102191576988893,
      -2.090656528015585,
      2.110573985313108,
      -8.715455640641325,
      -2.54878428473906,
      -7.600733451746261,
      15.820904581081152,
      5.412501326970836,
      -2.58045979401654,
      5.411933328011836,
      3.13884595653604,
      1.6411510394473963,
      1.190138043533889,
      -1.3335199277033112,
      6.482895324803257,
      -2.580421716153886,
      6.348035255496837,
      2.791597384336912,
      -11.766459289685923,
      -14.89781557676918,
      5.412106878868147,
      3.138910572329767,
      1.64098296100746,
      1.1901289300418822,
      -1.333974824938375,
      6.215545193462644,
      14.408406998963718,
      -6.976110349806176,
      -3.765210648874583,
      -1.4234891245018313,
      -0.7589368326190538,
      -8.740797325441644,
      3.192296420637035,
      -9.689918528755967,
      -0.5338109207397967,
      1.7066767899396504,
      0.5913820940310955,
      38.16936757191111,
      -7.242622528937791,
      -0.9910703272869811,
      -2.449778148122663,
      -0.9910709691339818,
      -4.249579274843642,
      2.1659207298459906,
      0.1552640488290164,
      2.1659177834329943,
      -1.644534214062396,
      7.6972531806040205,
      1.7167140627116728,
      4.197388151883196,
      -0.5138486375269051,
      -7.2426217736446485,
      5.7861955063640425,
      -0.09722122210855191,
      0.8776379590057708,
      -0.09722262943509709,
      0.1711163278455604,
      0.7959204080248108,
      -1.3858677539284658,
      0.7959194012474594,
      -2.0923914913447756,
      -4.900893978619778,
      0.6031252550629669,
      4.132437028740204,
      -16.380713681127062,
      3.887873481916377,
      2.527330626272292,
      50.31169373562049,
      2.5273301446415486,
      -21.899697162988062,
      -4.304217809052863,
      18.40796773666675,
      -4.304214878219699,
      -53.803432759669235,
      -9.141376697740183,
      -15.63960117297585,
      14.344497154698633,
      -1.729563594208479,
      -5.4300013141007994,
      -21.992193554699234,
      -5.430001317507767,
      -4.652305448074355,
      4.680707462426563,
      3.4960004973134504,
      4.6807064409030925,
      20.835913810337836,
      1.772163771491639,
      6.459266124639263,
      3.2963963242535788,
      4.144348803112473,
      1.765867364003162,
      4.1441992382424715,
      -0.18165949442969706,
      -4.9399125379541236,
      1.3378184129349715,
      -4.939938376383789,
      -0.6096678697390049,
      -4.552086217696706,
      2.4718469751802754,
      6.2342694114155055,
      -3.1242067360532166,
      1.765867435133175,
      -0.32184446078868545,
      -2.2339125712265444,
      0.741262995521624,
      -2.233914270707023,
      3.5448523484261747,
      15.85488787179953,
      13.360566124976096,
      -2.722954372693719,
      4.144356741255198,
      -0.1816567476748679,
      -4.939917795014191,
      1.3378305727019555,
      -4.939927393970609,
      -0.6096616691044727,
      -4.552101943966343,
      2.471848663426545,
      6.234273012525233,
      6.423730710791222,
      -2.5575990384843523,
      0.4321496917171047,
      -2.55759127397199,
      7.177790014619078,
      5.7957226413608565,
      12.222967502219497,
      -15.93675083596262,
      3.816936531320093,
      1.2718130531354985,
      3.8169419823749773,
      0.9483955323258407,
      4.978178948618952,
      7.2775819852043355,
      -7.292834908097474,
      -5.363094257367816,
      1.2718089654962654,
      -5.672602775412882,
      -5.733178155356916,
      16.017332205306733,
      15.480666719884494,
      3.8169679887324865,
      0.9484122652766566,
      4.975031587209359,
      7.277582649224169,
      -7.293534922248607,
      -2.0392604728649193,
      -15.792802762938042,
      14.879735145261245,
      2.2665309932790727,
      0.0002485829507559451,
      2.0806933320879546,
      3.4222949448689794,
      0.9281991526303459,
      11.64397491436712,
      0.4810682775842656,
      0.21906096001077519,
      5.7861960928642775,
      -2.6625282739968537,
      -1.117190711329172,
      -1.1937986033675734,
      -1.117191044731276,
      0.6060048070274737,
      0.9802125141065079,
      -0.22883457194166923,
      0.9802148508188848,
      1.5709685697200324,
      -1.3070046200591365,
      0.9182447995549333,
      1.9261292518445166,
      3.887873544848999,
      -1.729562924404815,
      -5.429989943533396,
      -21.992180612520546,
      -5.42999007227933,
      -4.652296052397625,
      4.680697312761622,
      3.4960142367043394,
      4.680697006482028,
      20.835905314319884,
      1.7721636882824778,
      6.459265336107889,
      3.2964365103764885,
      6.099627315096043,
      1.3588004497280346,
      11.797358051303007,
      1.358800548052402,
      0.9561299832003749,
      0.578920705268227,
      0.06891073110218171,
      0.5789307331362015,
      -10.772340226708074,
      1.3816758606644255,
      -0.7626122117073075,
      -6.6284700630695434,
      4.017214141350625,
      4.244161827484566,
      4.0171979340619615,
      1.290748798729167,
      -3.5677465675253615,
      -0.6771960106481523,
      -3.567740573199019,
      -3.6306891992454884,
      2.2901515813692557,
      6.506919630494676,
      0.7814556631391094,
      3.724082469232504,
      4.244162878858119,
      -0.7199874096089103,
      -2.6604184201403855,
      -1.5341479264639084,
      -2.6604122932637053,
      -5.978531042421033,
      -0.8337631060257346,
      -1.6203021632892773,
      0.06691510244284005,
      4.017212088042546,
      1.2907492392753188,
      -3.567748489898339,
      -0.6772004026386502,
      -3.5677454427232576,
      -3.6306928476015656,
      2.290151680374927,
      6.506919306772344,
      0.781226527562593,
      -2.4860076336025796,
      -2.2359176319947967,
      1.949365075437414,
      -2.2359171865736616,
      0.1827289842362118,
      6.16481159404617,
      -1.3625036650882731,
      -8.016276350685926,
      0.9669500257445532,
      1.6575660811336919,
      0.9669494505469792,
      2.0820643622273556,
      -2.3406028615249346,
      9.788318444083737,
      -0.6010192831115251,
      -2.5417688715151425,
      1.6575685390400205,
      0.9412854338609782,
      -6.591158461272144,
      2.4245703363807163,
      8.551241872656405,
      0.9669539957966616,
      2.0820591497453296,
      -2.340616798550094,
      9.788317771626309,
      -0.6010372151741808,
      7.102778792758274,
      0.40744399215104177,
      2.68236210651931,
      0.46830226148633153,
      -0.8199679927842567,
      -3.4364031671764517,
      0.6961211699817378,
      0.5513561651916338,
      13.69459801125584,
      -0.2820777690537096,
      6.089625341704728,
      -8.046670331853976,
      -36.19081957088345,
      -38.077357071045405,
      -36.19167411190485,
      21.894555850973372,
      36.9580745995006,
      -20.95132955034994,
      36.958120499346805,
      39.020525652478625,
      1.4613077383825877,
      -4.831229570842396,
      -4.4995246693033115,
      -12.278474762158886,
      10.031669543028649,
      12.503634361109608,
      10.031375779151503,
      -2.453469934194042,
      -9.082503903544128,
      4.885712187473479,
      -9.082504064013213,
      -10.072705210584267,
      0.28468977067922707,
      -0.05447768279070209,
      -8.941356100038496,
      16.008051840105352,
      25.448125284914827,
      16.005499441850194,
      8.271503732639237,
      -14.41131331727733,
      1.523574122251703,
      -14.411316768296986,
      -15.65442273935075,
      5.168173351618366,
      4.563108216402699,
      1.982005741668135,
      95.56882543890845,
      25.446655575472704,
      -16.083787693898415,
      -23.460223691284547,
      -1.3252518397849402,
      -23.459283248415225,
      -112.95969110280838,
      -10.400600525756149,
      5.348806679239076,
      6.749614148880442,
      15.999058384942728,
      8.271997465480323,
      -14.4113109725577,
      1.5213134622212257,
      -14.411314100517425,
      -15.654336637278112,
      5.178683802228352,
      4.563108726568014,
      1.9740025717171659,
      17.533403000332907,
      -6.715523822681422,
      -36.59253884087903,
      -6.715499256284428,
      -2.9574360090070413,
      1.9776069258224827,
      42.96400960013764,
      -20.805300545792903,
      7.212635517900164,
      -2.8374769450140653,
      7.213623048009889,
      13.903923969278482,
      -5.165712900352131,
      26.81195589231968,
      -1.6057188648749712,
      14.075120519616819,
      -2.8375097071826643,
      -21.194654331272172,
      -2.5840542491167167,
      33.801850721977154,
      21.2670848473047,
      7.213622230696185,
      13.904023480105826,
      -5.170250977641024,
      26.81194945441439,
      -1.6054911939377958,
      88.8227501244415,
      9.77759068456945,
      71.41707800441844,
      -6.286301416230626,
      -11.839644888011623,
      -1.6514566331491949,
      -2.0827861746160807,
      14.530990109266725,
      -0.5582521930592632,
      -10.384097745959926,
      0.06819871130409973,
      -28.835834327804648,
      -26.18580481852686,
      -28.835869582351027,
      -0.17731368165038588,
      26.56686993432836,
      0.6817574181153272,
      26.566869400209463,
      26.691121441474504,
      -4.302891048564734,
      43.49107891831209,
      3.7534003476125157,
      -1.4592542889678024,
      -5.283333260800947,
      -1.4592098952055537,
      0.4922754123559644,
      -11.406790969154688,
      0.7028094422966418,
      -11.406793938787326,
      6.47570988572252,
      -11.059011580007098,
      -41.0344478917055,
      -10.43177631016198,
      -44.05859174512344,
      -5.28319961193149,
      -3.291752096461279,
      -3.3630238061223445,
      7.927063820465402,
      -3.363438359314099,
      48.66741803509084,
      -5.9094535199013425,
      6.792122824191146,
      13.165689449049186,
      -1.459208951465655,
      0.4832268760989262,
      -11.41063919006044,
      0.7039188510081521,
      -11.40679160370822,
      6.479073874163801,
      -11.055715843724704,
      -41.034439370396896,
      -10.437809924244341,
      4.73516228961154,
      -0.555782819141225,
      0.9186739611087786,
      -0.5557791768509335,
      8.954250876311464,
      0.11903088928411837,
      0.7869530711546582,
      15.46418539687586,
      16.0718206880481,
      -0.8319281064952626,
      16.068512870861234,
      2.0214085689098287,
      11.350092033092306,
      -27.131951074338254,
      9.722234165364918,
      8.210265216710525,
      -0.8315648002827093,
      1.2214312240621399,
      0.17403604376494772,
      3.4328578870989785,
      -16.063771758233532,
      16.068513906749498,
      2.0201641921642306,
      11.352801079127076,
      -27.131953177764952,
      9.718771682723514,
      -38.50439189015746,
      6.224447453830385,
      -2.572404415957072,
      -13.733545196130828,
      1.6389018814416938,
      -36.85019807934691,
      0.16923299219797272,
      3.574836661790952,
      -54.06325903376414,
      3.710766494080914,
      -16.677868563817338,
      -15.593670107540794,
      -16.321599695751544,
      -4.189004731188784,
      28.834766704500215,
      1.7474030165657606,
      28.83476124490038,
      13.425609691262208,
      12.228247908943926,
      4.593357159255149,
      -19.071571359310436,
      -15.256634768575408,
      -15.589000281174851,
      -5.191901211071476,
      16.936196397999865,
      3.843253708621644,
      16.936215932264073,
      13.992054324716598,
      -3.2557064497983217,
      -15.702858526579593,
      -5.639618930147195,
      -16.32159699599459,
      -4.213383596514111,
      28.8348295589274,
      1.7417770069057448,
      28.834821511186824,
      13.39503612997505,
      12.521134725493184,
      4.593353387841327,
      -18.767190035402116,
      -1.6272928219221865,
      2.9058060824314085,
      0.775023154118491,
      2.905788911743798,
      4.100281480506437,
      -7.349088223453778,
      -29.62959650061064,
      1.1415252688773116,
      -26.43982890463593,
      1.3593158136321217,
      -26.439825662216744,
      -12.827195853475867,
      -17.47475787685119,
      -18.262464797271864,
      24.170922681527458,
      0.8501303842336535,
      1.3593089735271713,
      -2.3140842564344424,
      6.713720423678042,
      12.959828261120807,
      -2.3024747516973534,
      -26.439775847868116,
      -12.827185235848667,
      -17.474471467769714,
      -18.262471325986787,
      24.171041797492446,
      -11.859496216277487,
      2.784479222130637,
      -0.9663056239938497,
      4.5349404264054956,
      3.670245230341802,
      0.41668905200408624,
      11.514274005487987,
      -10.020872779740749,
      -17.029977239722868,
      0.07456763749496095,
      -12.52561507131212,
      -15.166400199165741,
      3.4616267010765425,
      9.760218208379747,
      3.82838271019685,
      9.746421140942111,
      19.844659524839685,
      15.496985902824775,
      21.86903594910516,
      -7.947344564766999,
      -15.747656125146905,
      -5.08419929575043,
      17.0045719711352,
      3.6371662931939714,
      17.00507753842291,
      13.927883335176569,
      -3.256981860048679,
      -15.70279904093559,
      -5.562859041384526,
      7.33208292611882,
      3.5031337372326745,
      0.24747027511667785,
      3.5030844334382483,
      4.598547437609036,
      -10.596158979522066,
      -0.657754680881952,
      0.2969135581158924,
      -8.88265228440497,
      -1.9581417589302523,
      -8.89088965962846,
      -8.218772022421462,
      3.8590909060700027,
      -11.432355668076562,
      3.118736144191365,
      -3.0994588718051674,
      -1.9588957386896224,
      -6.646256894602785,
      11.85579818430152,
      14.73158646032563,
      -7.715187614787415,
      -8.89087707219223,
      -8.21879019632191,
      3.880095851816703,
      -11.43235547510046,
      3.1152664041754212,
      -22.007556105073824,
      -13.753193870850163,
      -7.794761332983147,
      0.4511760710228996,
      3.7057203928473603,
      5.839517761469276,
      6.403357980729753,
      7.532990994287176,
      -24.321595434435743,
      1.1452256232816103,
      -16.321678227784073,
      -4.213359064747357,
      28.83476207157573,
      1.7417900765449439,
      28.834882444108516,
      13.395002068661771,
      12.520915274590129,
      4.593352728794809,
      -18.76720326491824,
      -1.5933919189204935,
      2.905798676969228,
      0.7800414169833706,
      2.9057795353364115,
      4.1002949946396,
      -7.291351761361669,
      -29.629596755398417,
      1.1640374954974346,
      -26.439759938292795,
      1.3593338377923656,
      -26.43987461056082,
      -12.827173750991234,
      -17.4748082027677,
      -18.262469130811347,
      24.17094722726307,
      0.8483246520669744,
      1.359319372577286,
      -2.3141083559194304,
      6.734142436555274,
      12.95982247499861,
      -2.309781308228078,
      -26.43978495314628,
      -12.827192698236193,
      -17.474815999934098,
      -18.262466126364494,
      24.170937976291356,
      -11.834631748071649,
      2.8311325999422574,
      -0.9663004030829612,
      4.529523471655085,
      3.234552854516703,
      0.4166867895886437,
      11.562277169850555,
      -10.02086815824499,
      -17.030499252763057,
      0.010371286055066806,
      -0.5704353158416264,
      7.333513844306339,
      -3.5608939470092342,
      7.321865039799603,
      -11.316665336337065,
      -14.711517714994875,
      -14.475683010813839,
      29.226284404796964,
      1.0955235293813985,
      -6.576298328583638,
      1.1211188516146828,
      -2.764258610380566,
      6.957983415832417,
      -9.268898647272652,
      0.6197798138595463,
      9.129422625375678,
      -6.583931578286707,
      5.1238873808180205,
      17.107042868196885,
      -6.659251016587107,
      -34.843780912214015,
      1.1211096296374077,
      -2.7641437261119375,
      6.942795072094174,
      -9.269065791716386,
      0.650955921674702,
      -10.452744776468073,
      12.101978552811717,
      -20.476554119979774,
      -6.249640036891758,
      0.8772295815235609,
      4.460071304643224,
      -9.557081496921587,
      13.336590396310418,
      -41.93914540681973,
      0.44725220919878717,
      13.513441676517964,
      -4.682632975467992,
      13.17628318949813,
      5.307089359013886,
      11.760151893184867,
      19.037333807980275,
      -13.574398724791005,
      5.570468602823297,
      -4.71671723028767,
      0.8960564360981687,
      -6.313868117491308,
      31.684941483863756,
      0.3591181620305234,
      13.176252106862316,
      5.315532816841984,
      11.853841610330578,
      19.037334706725193,
      -13.590705041080438,
      6.669271429814801,
      -3.478650164986522,
      33.848476512173555,
      -2.025702713342037,
      -4.3206210035649715,
      6.239635976264928,
      -11.906352146690315,
      8.129925236413962,
      -8.422906007124897,
      -0.32937132690203763,
      -13.997077242885288,
      5.498692670441585,
      -1.9430332593855897,
      -16.956963290702937,
      25.413015004391358,
      30.02673134979931,
      -4.527993281690227,
      0.8692190971175664,
      -6.238920436163845,
      31.684895622964888,
      0.45737915750614494,
      9.096895881440377,
      -12.081085396586767,
      4.02060090223036,
      2.358998297974893,
      -0.1344197992809958,
      -9.298126503737306,
      9.826759325231448,
      9.961712464446148,
      36.00290368400165,
      0.1604586304737593,
      13.176230191510877,
      5.315540754883042,
      11.853877691239541,
      19.0373291608293,
      -13.590675098879382,
      6.674905721058773,
      -3.4397775807770152,
      33.848475577361576,
      -2.0193368308912167,
      -4.2782899711357905,
      6.239651421594892,
      -11.933839348299543,
      8.12993301200369,
      -8.422921571110914,
      -0.32934039757458256,
      20.770204164814224,
      13.932127042670043,
      -8.662465582921723,
      -4.028833931360587,
      -2.74570128054485,
      -10.676927819583799,
      -6.4952354111949395,
      15.765308255983019,
      18.385312982755906,
      -0.92413837751834,
      -2.861214637046604,
      -3.81937363566107,
      1.2099668701705255,
      -13.813335917241714,
      17.951425034745682,
      0.2567229684688533,
      5.524444365329064,
      8.542316299322717,
      -0.5966552633902276,
      -2.5131305044058685
    ],
    [
      0.7986039362100339,
      0.08541235820097137,
      32.92328120083992,
      -9.467687943994802,
      -1.8291603058725634,
      -3.2259010536141957,
      -1.8291973185506727,
      -3.225848623751775,
      1.68865475035319,
      -2.849662125646448,
      1.688636918586038,
      -2.8495991451953095,
      4.987590867964672,
      2.3080729248506917,
      -0.8952317769968837,
      -0.5131619635328591,
      0.2887216817160511,
      -29.20134175068872,
      7.210859544185975,
      -0.6387194620776725,
      1.3002906854853413,
      -0.6387484776672042,
      2.752238632958646,
      0.6185777470966995,
      2.5722058095611127,
      0.6186236115711223,
      4.024073492040649,
      -4.715308660665404,
      -0.7932165670886939,
      -0.1616127021129985,
      0.5131620645749367,
      7.210862163894718,
      -5.588026365725087,
      -1.9597342751636933,
      -1.0893949880462535,
      -1.9597361637769177,
      -0.9341243340289168,
      -0.3116631708124278,
      1.171085040592985,
      -0.3116660865979337,
      1.3263859203342696,
      3.1379163218624733,
      0.3252394130184554,
      -3.7557960247349107,
      33.82013300276562,
      -4.6543093688641335,
      -8.291944251221995,
      -46.2832364282856,
      -8.291755233369274,
      13.571353304492696,
      8.103501513443167,
      -14.519381085222593,
      8.103528622158441,
      45.33518880345643,
      7.708973976708752,
      9.572446810027731,
      -15.834581553413084,
      15.863910688098464,
      7.151298325575673,
      22.588345375057198,
      7.151277105873225,
      5.375986916727192,
      -2.790009699382339,
      -2.0270303941731767,
      -2.7900492345030488,
      -19.23915982192689,
      3.1227990287730236,
      -4.769668932983576,
      -3.3958210359502528,
      4.8928110116985595,
      6.7778241730397575,
      4.892195715494375,
      3.453781331529965,
      -5.976837784765446,
      -1.8539966291564396,
      -5.9773233046296905,
      -5.179083823679598,
      -0.8161421913571211,
      -10.215234713972903,
      3.5011615178830553,
      7.741977827498713,
      6.778429191146792,
      1.876481768490291,
      -1.7014018754192501,
      2.942495965551253,
      -1.701812927839672,
      -2.924471715395926,
      -11.153375831137282,
      -19.69484072523662,
      9.305753375749685,
      4.894718102562218,
      3.454075103275614,
      -5.976260769596482,
      -1.8541441740407214,
      -5.975778148739498,
      -5.177810643007712,
      -0.8140693574184684,
      -10.215235730679803,
      3.501670431031974,
      -3.9871991330944963,
      1.3684458055079514,
      -2.237465553060503,
      1.3688041399403215,
      -8.10386243912472,
      -2.089678529950694,
      -15.498806191952655,
      7.683355283252659,
      4.184971446379985,
      -3.073632361026168,
      4.184823752600032,
      -0.005419492346860923,
      0.38459966277379215,
      -3.542301368279352,
      -1.154734122186973,
      8.100195409366748,
      -3.074138218288806,
      2.9201561285589723,
      2.6652961887004074,
      -18.262186900606462,
      -7.236530426934521,
      4.184690025841069,
      -0.005623981315064438,
      0.3848091049823683,
      -3.5423119372622383,
      -1.1548812588419846,
      -2.2601296239683277,
      11.730545024969164,
      -14.066140032465638,
      -8.860008227704773,
      -0.8089444421920182,
      11.898795621998044,
      -7.918235163827843,
      2.4764769274307374,
      -17.545079706123033,
      -0.0913064835207735,
      1.1141224160310172,
      -0.07860474141104759,
      29.354430816940635,
      -4.732607757408009,
      -1.3593541618034244,
      -2.6893898768860356,
      -1.359353624710779,
      -3.6223260851068346,
      1.2878406200665837,
      -3.035699294264657,
      1.287835893421844,
      -3.9685924586505514,
      6.591084802454683,
      2.0271938497631115,
      -3.310972699979292,
      -0.3155309915693064,
      -4.732611134638789,
      3.5688499165384426,
      0.2477788720758793,
      0.018053357738376193,
      0.247809402224627,
      0.5429125010004793,
      1.173340150718868,
      -1.3718605889572957,
      1.17334107392625,
      -0.8469639667726536,
      -3.8824440654386327,
      0.5185043465621924,
      4.421496936497578,
      -19.870866163581372,
      4.469082726767485,
      -0.9836489290584136,
      36.25431959457307,
      -0.9836544710755613,
      -16.833743320934918,
      -0.30901162639900565,
      15.407182015556302,
      -0.30901703402288905,
      -37.68087400717067,
      -9.775004888276912,
      -4.308678680374099,
      13.671129970838843,
      -4.3213906525318935,
      -5.837279210981099,
      -14.99986675322608,
      -5.837275892938698,
      -1.8905346443301456,
      5.079421817751502,
      0.7208966011444676,
      5.07941719287063,
      13.830279797632715,
      0.7003899002978857,
      4.318823116199291,
      4.532848372946255,
      4.011997220398095,
      1.501028775093594,
      4.01173163073037,
      0.33932134526962354,
      -4.790454438678801,
      2.592685285681204,
      -4.790455447803696,
      1.4315992428944537,
      -3.94680532707086,
      4.827764240899673,
      7.0533496562744515,
      -2.4560908332099882,
      1.5009018211357255,
      -0.09293639182289604,
      -4.616738814621282,
      -2.3766622054653643,
      -4.6168357798274515,
      -0.012599432230675167,
      12.578944753389905,
      27.165213901200154,
      -9.515859081818947,
      4.012099662397578,
      0.33944565777973945,
      -4.79050140779861,
      2.5927874777656696,
      -4.790511008244005,
      1.4315567359145316,
      -3.946888142507891,
      4.827768765020053,
      7.053320546570018,
      4.91104405787542,
      -3.4919724714283893,
      2.298538722757244,
      -3.491994963401342,
      7.303408688805996,
      4.006110584091576,
      25.723196873640394,
      -9.810429337517691,
      3.608492057102703,
      0.5507611554278242,
      3.608536787672621,
      1.6759956285171425,
      4.315297199679538,
      10.263512564331776,
      -8.246298692686961,
      -8.419923010207217,
      0.5508026217165645,
      -3.743756189831955,
      -4.523170998748906,
      29.449210555049113,
      9.960158990943107,
      3.6085332269262915,
      1.6760279685969912,
      4.317020439779357,
      10.26353223449356,
      -8.246855554296447,
      3.5721015236601215,
      -13.095418423144348,
      28.00718235822159,
      9.666690950654552,
      -0.2208010425353585,
      -2.491916608037376,
      2.5539923101568753,
      1.2978803796937917,
      22.21280498094811,
      0.2723032948398641,
      0.16401470664494583,
      3.568849775317161,
      -4.7350800745149355,
      -0.4698124521317054,
      -0.5364575966793967,
      -0.4698031781247788,
      0.39650092545960114,
      0.4007904814447417,
      0.18607816432008578,
      0.40079766665164107,
      1.1190449548347203,
      -1.6035702010932833,
      0.28085685998854465,
      2.415820085270483,
      4.4690821863533,
      -4.3213923488572785,
      -5.837266071965226,
      -14.99985460791131,
      -5.837268241302252,
      -1.8905327353003198,
      5.079379593036618,
      0.7209345723350692,
      5.079384751134354,
      13.83026633633136,
      0.7004026375971799,
      4.318823580150619,
      4.532828525165046,
      5.459221390771845,
      4.925256210786362,
      15.937595823475004,
      4.925254149988836,
      5.778616416846132,
      -3.969206446120173,
      -4.920339733448626,
      -3.9691797688223116,
      -15.07927602976759,
      -0.20458362157243554,
      -4.240634220121912,
      -4.676475302258893,
      4.179989705659179,
      3.4701199763323096,
      4.179994562642526,
      -0.0923827786933964,
      -3.3608289022585094,
      1.4010416579270342,
      -3.3608422828781066,
      -2.1610404589674177,
      1.5569387841115785,
      9.633945919794014,
      -1.4146828381932097,
      1.33057629895469,
      3.470170628156031,
      -0.6495762073099728,
      -1.250084127578243,
      -1.0333720969008597,
      -1.2499969180477444,
      -3.0124730822828107,
      0.541979799233434,
      1.9470548427495733,
      -1.6680068370171903,
      4.179951732898978,
      -0.09239333614770581,
      -3.3608345718802424,
      1.4010512578475518,
      -3.360806629689122,
      -2.1611029553677445,
      1.557008021945757,
      9.633951271023948,
      -1.414309294019316,
      -2.347279039248664,
      -1.8150856679878768,
      1.0948401619028911,
      -1.815114031880361,
      -0.6014603345837354,
      6.246299653003257,
      2.538329540887124,
      -8.49821264822145,
      0.43447417272930255,
      0.5166183574226808,
      0.43445584573290236,
      -0.05167685927569758,
      -1.7231672238093778,
      13.350637162644972,
      1.5159636332162485,
      -0.21330200634613306,
      0.5165998451330427,
      1.9162822360682024,
      -6.5191964527720305,
      3.1842131693568936,
      8.973720465776264,
      0.4344021395562173,
      -0.05167996530001508,
      -1.7231254624035244,
      13.350642410871005,
      1.516044714046022,
      4.328214647115925,
      -0.8150938057554522,
      3.775475731654546,
      2.1430865548662044,
      -0.6176175824421714,
      -4.59128233829373,
      0.604020932254624,
      1.0742126065083006,
      1.908738798191698,
      -0.0915710207830524,
      6.052920642197759,
      -7.051644100944777,
      -30.331522046056726,
      -40.185442367124615,
      -30.331849245632096,
      21.300078073064608,
      31.112173786827935,
      -20.500206561656938,
      31.11320028889594,
      40.98622967137756,
      1.3822331699871881,
      -7.91353128575034,
      -4.408358272629458,
      -8.417389083911635,
      0.9919053822533757,
      15.037060097471773,
      0.9906404683865013,
      6.576421157505726,
      0.1743098853349676,
      -3.998186038769096,
      0.17431255536783397,
      -12.459212031867066,
      -0.12263418943552429,
      -53.56641233615328,
      -8.364309479661642,
      19.22421604838565,
      23.08979127688705,
      19.225511353168933,
      8.001199221567637,
      -21.541117135146912,
      -2.6523223300973826,
      -21.54110659365007,
      -17.712982159263436,
      4.610213147528804,
      -5.298181113340917,
      4.956982665697953,
      69.85892481101493,
      23.089825747975258,
      -14.272364081891894,
      -21.107537677990134,
      3.78862044793698,
      -21.104312686862094,
      -80.35331605809624,
      -8.84552247741013,
      9.022649561744377,
      4.627298965842115,
      19.314202536924345,
      8.00043574808415,
      -21.541114623028005,
      -2.65145612130193,
      -21.541162716419436,
      -17.712762230582868,
      4.556122829707234,
      -5.298183366815881,
      4.953085726289082,
      10.402797032035199,
      -6.393203980559532,
      -22.604804797770825,
      -6.3928236233424585,
      2.0743121278333287,
      5.156259382662647,
      26.425325329494463,
      -24.16520982679899,
      12.766160738858018,
      1.2583156320585243,
      12.76632321317594,
      15.999728151903792,
      -4.572407781691187,
      17.888658026631976,
      -4.564433058675927,
      6.972095146018747,
      1.2579631662656576,
      -19.432866609182827,
      -5.752408848823292,
      28.04706269931477,
      24.59290304686834,
      12.766314827194972,
      15.99968394104761,
      -4.572724856530929,
      17.888653781511014,
      -4.565576452579071,
      62.996211659237616,
      8.250797801174425,
      45.44977063069333,
      -4.187318985649875,
      -9.740126216669609,
      -2.538532866178678,
      -2.1449470459140856,
      8.745213637157107,
      12.74227382386185,
      -6.945369480336432,
      1.0287760484756323,
      -26.43004173242341,
      -26.138543673783662,
      -26.43003796699448,
      2.7037775583239987,
      24.413823000053164,
      -2.0912961070996854,
      24.413981155017375,
      26.746742919306076,
      -4.047738911889166,
      41.078632950763186,
      3.6326178520991395,
      -7.542958142289355,
      -19.783201891505534,
      -7.543960412084783,
      -6.802054392960933,
      -1.7685392668777393,
      1.9143132244626524,
      -1.7685478922054154,
      14.897227551963146,
      -8.300968129031924,
      -34.38591773303006,
      -2.790098212397295,
      -52.89460636413098,
      -19.785793190536516,
      -11.82108918831117,
      13.613112300126787,
      17.28152032711908,
      13.612990894037354,
      58.37394739639661,
      -2.2496262724547766,
      -8.874158963252427,
      13.06892980615066,
      -7.543967278935204,
      -6.813105885000925,
      -1.7819400915235173,
      1.9143064060697716,
      -1.768549154947831,
      14.895956034111329,
      -8.3014919844701,
      -34.386095192387295,
      -2.7797832807053435,
      -2.0267818541548794,
      8.54791955939686,
      13.65695568775405,
      8.547814758534152,
      23.40051304534301,
      3.502515807903774,
      -17.545318063375667,
      6.908554511620784,
      8.348364762872308,
      -3.8387382464328215,
      8.343273346020677,
      -8.91815653504534,
      8.550157980561314,
      -36.3718283276451,
      2.2112406570334513,
      -4.3198378016321,
      -3.8416481708203913,
      -8.039689055234387,
      -3.063603334737722,
      -27.55403353179853,
      -7.517459934127913,
      8.343301101802949,
      -8.9180251541733,
      8.555559345151664,
      -36.371822826611165,
      2.209186650399068,
      -43.00789712721419,
      2.5112087592359025,
      -36.22528467223812,
      -13.655235819052518,
      4.5378751618212485,
      -39.426381652853415,
      -0.06436864745182846,
      -2.27008279229372,
      28.042248827560563,
      5.190790861973695,
      -13.291862517892545,
      -17.710248868152387,
      -13.430546770564906,
      -8.86007840654664,
      24.6860158140732,
      0.9844000512466103,
      24.685987644465516,
      9.700779938336858,
      9.433929116389217,
      7.235018348370989,
      -20.49644795546785,
      -16.760892817007797,
      -17.721139297938144,
      -4.015383374416992,
      19.045566896308454,
      -1.0461400133320737,
      19.046282698144715,
      11.249311718440115,
      -2.8056501932404303,
      -34.66601367624931,
      -0.7122731056966427,
      -13.430547831564184,
      -8.824366691772614,
      24.685717263557297,
      1.0495782349898248,
      24.685993668178902,
      9.678844368378254,
      9.980975372753125,
      7.235055257165545,
      -20.10086537158787,
      2.454418546181942,
      8.007831105484268,
      -4.147066754046556,
      8.007843211127128,
      2.066435686645214,
      -4.643453697344048,
      -53.24196156689215,
      5.539736415166303,
      -24.07329125411371,
      3.8139678923576295,
      -24.073053254721568,
      -6.856437414770478,
      -14.061531634463885,
      -16.496318691491613,
      26.599762016370423,
      5.3932332607396285,
      3.8141318852918724,
      1.41505397503532,
      4.523344991229067,
      7.769516079879207,
      -7.127507661684517,
      -24.07325305987122,
      -6.856582831145286,
      -14.060935773606444,
      -16.496334405821884,
      26.59975615853022,
      -7.563546175721497,
      2.5318096370700047,
      -10.801686698466934,
      -0.15966981369732686,
      2.3731147392921654,
      -17.460728090890377,
      11.594618438100222,
      -18.162174200718447,
      -21.38692844078304,
      -0.5614709477175662,
      -9.275401737314565,
      -16.401668172273464,
      5.672555240094282,
      7.206250137002948,
      -3.623028431491379,
      7.20910644731859,
      9.92696298197077,
      10.127255534763274,
      22.482667108279415,
      -7.796615914579617,
      -17.881443834410213,
      -4.107318740897657,
      18.91992271875243,
      -1.2809980385111537,
      18.914901927313032,
      11.49065303956075,
      -2.4251287515440607,
      -34.66638548445423,
      -0.5337535480695809,
      7.19888146137605,
      3.635992912029026,
      1.518222185345173,
      3.6357197030321653,
      4.650951544209721,
      -10.731086554849174,
      -13.322164862113361,
      8.983171435219827,
      -9.654295776007881,
      1.8116849615375543,
      -9.714206301608558,
      -1.2877932123577842,
      2.8510716231606494,
      -1.7611554117294523,
      -1.1844071386630122,
      -8.704301653256383,
      1.8111502255297545,
      -3.9359915976974205,
      13.179979301521412,
      31.059741074836555,
      -14.580544378288106,
      -9.714419134316913,
      -1.2878077862851056,
      2.8438409912146687,
      -1.7611543311253763,
      -1.1813472153855702,
      -8.731221467705424,
      -8.288634067904447,
      -4.743754736334102,
      3.039546812685275,
      3.2232656795953165,
      -1.5159786530396602,
      6.37521696901865,
      12.368765645497433,
      8.8088491730259,
      0.21199194639828733,
      -13.430545270219248,
      -8.824600152313362,
      24.685952680722217,
      1.0498376594284382,
      24.68602168456566,
      9.678579610532546,
      9.98061960733001,
      7.235035022165508,
      -20.10121183181763,
      2.0839590909605614,
      8.008199002742183,
      -4.838569846689929,
      8.008133724678776,
      2.0663936232078255,
      -4.599515721347664,
      -53.2419971937811,
      5.578121697790012,
      -24.073242893588056,
      3.813600208263427,
      -24.073264206231922,
      -6.856289172438741,
      -14.060933636294187,
      -16.4962770727176,
      26.599755892687597,
      5.3832279149675015,
      3.813878870130162,
      1.4153058608255347,
      4.533310310537198,
      7.769521341869167,
      -7.099727783486382,
      -24.07314821236921,
      -6.856105760372511,
      -14.06132169968433,
      -16.496293028655625,
      26.599399091690184,
      -7.577686711310089,
      2.546231514308041,
      -10.801706947899113,
      -0.22165390942975693,
      1.8126031091259138,
      -17.460722279781226,
      11.444273083204946,
      -18.162150947113574,
      -21.385635958015264,
      -0.823098167737293,
      0.9048759308927958,
      6.567465090807099,
      -3.1162628293197745,
      6.5237996980994915,
      -9.702174741265331,
      -14.448726401155998,
      -41.50213750642605,
      23.636845085467666,
      -1.1471981656355745,
      -4.376428626752391,
      -1.1974595183121315,
      -1.9625516628625022,
      4.255897448898449,
      -8.20164927505184,
      -4.380855435284068,
      7.187949009551524,
      -4.3030651520447325,
      2.941573948916319,
      17.024408156157865,
      -2.144007373185183,
      -28.963026852210547,
      -1.1974940907680929,
      -1.9553231090141212,
      4.579567629706569,
      -8.201002172953915,
      -4.330776375225141,
      -11.407272153110526,
      13.409956285391363,
      -30.318757227488213,
      -14.502312936297804,
      2.2755867811396793,
      20.126145288632877,
      -9.150410387175604,
      16.871005352116082,
      -23.08462119860118,
      0.5267725099809462,
      11.559845009543803,
      -7.030585930840127,
      12.948338393493064,
      0.6876754887407442,
      9.63674971616921,
      13.110697909755382,
      -15.759744911641722,
      3.8419162088368326,
      -7.03149047393056,
      -1.8006357857423123,
      -4.048255084906385,
      57.049950419325256,
      5.415931991237753,
      12.94829622826684,
      0.5794209633340512,
      9.464013310960755,
      13.110618110376354,
      -15.712802264262905,
      -1.7080997184846232,
      -3.0380248254240345,
      50.607085661336015,
      2.5337279945916653,
      -2.245405289663049,
      23.974589399201218,
      -11.802851713986058,
      -1.5360653735005014,
      -0.8249173956473297,
      0.3367436088638992,
      -9.140551387700505,
      3.8038926358606564,
      5.629187045712192,
      -16.50034104106268,
      45.085122012655546,
      24.316994845151523,
      -7.417194233445395,
      -1.1268825842815158,
      -3.9978449985670093,
      57.04793923134139,
      5.1607709883672035,
      10.70725326612072,
      -12.33794474168038,
      11.879794779325978,
      10.564903402086873,
      1.3712438883440385,
      -21.742401261513685,
      7.993373817500588,
      17.100634263399797,
      17.220572199719776,
      -0.19415631823222823,
      12.948222330618988,
      0.5795845493169152,
      9.463951974069447,
      13.11067825453043,
      -15.71257006894449,
      -1.740098896575284,
      -3.000582500489201,
      50.607064618471846,
      2.52953304797628,
      -2.3688491334145816,
      23.974459781944976,
      -12.007410871132956,
      -1.5360815301478565,
      -0.8249078448696561,
      0.3367693072846442,
      6.48344991499198,
      9.733496160641684,
      -13.68931047263536,
      -4.311119812443869,
      -2.8235180528651003,
      -0.10099058923796989,
      -5.039427239731206,
      21.60287753805824,
      -14.67816390433741,
      0.06143258190565003,
      -1.7296601363938002,
      -3.339888181702555,
      2.016137564864478,
      5.9558241422422045,
      15.05499274773474,
      0.3812783077282323,
      5.209911999120726,
      6.632572144360573,
      -0.1760557642520203,
      -2.1534098443727765
    ],
    [
      0.9112467916427447,
      0.6478369227918706,
      31.16281603107212,
      -8.399172986499533,
      -2.1135163475717116,
      -3.724941517900708,
      -2.11351162979019,
      -3.724908817201585,
      1.9005294891422913,
      -0.871219851662703,
      1.9005307061793397,
      -0.8712355887318712,
      3.928104775341981,
      2.509905815361561,
      -0.33287196650167306,
      -0.5144166880160177,
      -0.26555228606169407,
      -26.807147099263492,
      6.515006867545222,
      -0.9271552977363454,
      1.8926867172483295,
      -0.9271530328763798,
      3.549347175206708,
      0.8209084142004148,
      0.7228965390723388,
      0.8208885110452167,
      2.3795508504211806,
      -3.5272882140518815,
      -0.6665372552257851,
      -0.5411625571530184,
      0.5144161941264445,
      6.515007378383556,
      -5.108322771293835,
      -1.6208243078046267,
      -1.6879778027778312,
      -1.6208307706262657,
      -0.5102164553947419,
      0.06312079368769569,
      0.5780501154349627,
      0.06310834289515588,
      1.7557874997042056,
      3.3578541251536103,
      0.4001440432402475,
      -3.9332590749130976,
      34.92725368221797,
      -11.690523587831432,
      -9.823059872677348,
      -42.72194534405199,
      -9.822963066280025,
      13.932033753991544,
      9.363605863284775,
      -14.02331542590586,
      9.363575755748833,
      42.63066824353057,
      7.023755410755646,
      9.976206874803998,
      -14.085963592616144,
      16.141113230009562,
      5.456396896605589,
      20.941035913607017,
      5.456388483891143,
      5.671343297348101,
      -2.843332491706972,
      -1.5611631056985642,
      -2.843333961780048,
      -16.830828065231866,
      3.523393676743598,
      -4.6552168555435705,
      -1.9999991171883384,
      6.18685078638811,
      5.81520313476569,
      6.186469967175108,
      1.972088644187159,
      -7.2054999515028015,
      -1.3246130256313817,
      -7.205702375426463,
      -5.167949811328577,
      -1.184112611299076,
      -9.68189646604529,
      2.9515330201032945,
      8.962987842331682,
      5.815155877498582,
      2.1917210474869173,
      -2.256520477530828,
      1.528668562879444,
      -2.256394601155109,
      -5.2439842604374505,
      -10.842274407148299,
      -15.641359948661044,
      9.326403580702262,
      6.186460641211317,
      1.9724862113331914,
      -7.205124246359875,
      -1.3247517319450521,
      -7.206029682837035,
      -5.167658214479988,
      -1.1834726856800066,
      -9.681889904402379,
      2.9518077740722424,
      -4.579853879293461,
      1.1989554914078675,
      -0.05616074879305624,
      1.198773892454385,
      -6.827726784433683,
      -3.7004129595373256,
      -11.078433334463124,
      8.721553237184416,
      4.783972792872767,
      -1.9777381113104204,
      4.7841344653408395,
      1.4769649611656244,
      0.5833961589283758,
      -1.5618954970087915,
      -0.8976459001993033,
      4.074875017959191,
      -1.9777187974330732,
      2.4906529953381025,
      3.9496583081490244,
      -13.878648835521362,
      -7.999883115806766,
      4.784495447968448,
      1.4770378421731971,
      0.5835225803578759,
      -1.5618963000009678,
      -0.8978245553640912,
      0.9068354596291359,
      11.090441546360829,
      -9.315710581001552,
      -8.60380405537863,
      -1.0134566170824348,
      15.670641141502935,
      -6.737710892883924,
      2.9160937426787608,
      -4.481694838243339,
      -0.15450135621344438,
      1.0901052842208807,
      0.5423152361254205,
      27.81635537971806,
      -2.8277972234769617,
      -1.2157384372845412,
      -3.2267208806837564,
      -1.215736540467755,
      -4.161916540810653,
      1.320144549595794,
      -0.8378325417266044,
      1.3201499147452063,
      -1.7730056836229364,
      5.665851635816762,
      2.0530908061208812,
      -2.626313518956776,
      -0.17886118018089583,
      -2.8277976480031035,
      3.346455530211961,
      -0.11034963982449338,
      0.2682794909571225,
      -0.11034438201589868,
      -0.21451885049567593,
      1.1087808187609391,
      -0.519601887280478,
      1.1087724644419508,
      -1.0023656516672612,
      -3.829536523204836,
      0.4488602631417947,
      4.394881549221087,
      -22.744479238178688,
      3.0474497504592377,
      -2.5618561986557657,
      29.219130726726668,
      -2.5618545321049724,
      -19.516257026360854,
      1.8836120284783873,
      16.76269715618881,
      1.8836130734543857,
      -31.972688834631743,
      -8.655538547391648,
      -2.644220799584149,
      10.324015052435398,
      -4.429506731410322,
      -8.33087080442779,
      -13.906771003576807,
      -8.330870554392233,
      -2.0624937409009907,
      7.911305416463244,
      0.8343547746434303,
      7.911307197209704,
      12.67866101092615,
      0.5323265065231194,
      5.580116446122867,
      4.340583814411519,
      4.228090483864575,
      1.8808779707213898,
      4.228062768268366,
      0.1954366949906637,
      -5.211966775233819,
      1.394702846080912,
      -5.211969241502626,
      -0.2909492935840455,
      -4.658046880008839,
      5.345791643977514,
      6.461724838055613,
      -3.2800385015513864,
      1.8808793277926812,
      0.1607445990892814,
      -3.9957588647603735,
      -2.097840571734565,
      -3.995705891238547,
      1.3426083719584025,
      11.4663589279766,
      18.31243935455059,
      -9.250546481538105,
      4.228105622433937,
      0.1955263313845186,
      -5.211998574025511,
      1.394703591242186,
      -5.211971063371253,
      -0.29092525723834156,
      -4.65805327787132,
      5.345806813021108,
      6.461709894843015,
      6.613655899248668,
      -2.503125108363976,
      -0.7835263587614838,
      -2.503156682924695,
      5.668669795297379,
      5.054299414971269,
      17.100709053132753,
      -10.234271749551612,
      4.219973268924939,
      0.8884250560350424,
      4.220007163288803,
      2.3810972020162087,
      4.7609528177886045,
      11.453665335904107,
      -7.4900366593858925,
      -4.386851689585916,
      0.888392884443189,
      -3.0726948350566423,
      -5.402634518843837,
      20.289679541064157,
      10.108962423446492,
      4.219983787897119,
      2.3810892127911045,
      4.761545977603785,
      11.453667832593244,
      -7.4903658231069015,
      1.2533956116340843,
      -11.814943070296223,
      19.07795630816326,
      9.12532062389281,
      -0.3304431510224901,
      -9.982563534240017,
      2.2322157202164656,
      1.6411969359294263,
      3.814548103008198,
      0.16452183052842284,
      0.1055202961047409,
      3.3464549832239214,
      -5.571376558833693,
      -0.8977745614821089,
      -0.49821549020447,
      -0.8977705615525038,
      0.4369768238914582,
      0.5803662229530963,
      -0.033421802747609974,
      0.5803688963805131,
      0.9017886681189613,
      -1.7377518565941183,
      0.456782852904332,
      2.293378181213787,
      3.0474478215160135,
      -4.429508634329391,
      -8.3308847839042,
      -13.906754710461257,
      -8.330884927427547,
      -2.0624739770040947,
      7.911297761245432,
      0.834349878910911,
      7.911296290771481,
      12.678662972086517,
      0.5323071484634022,
      5.580115681284233,
      4.3406051312962335,
      4.646805193585907,
      4.4092196416060165,
      17.306272429528835,
      4.409218614580571,
      8.019359472687707,
      -3.3518120901178277,
      -7.235602527562719,
      -3.351817048462154,
      -16.522566029914888,
      2.529179047321675,
      -4.1984490225133,
      -7.5837226497113654,
      3.851733546134259,
      4.216752456229289,
      3.851770907143736,
      1.2697360641359272,
      -3.7744332339153788,
      0.2616669038138417,
      -3.7744128478757704,
      -2.684949070258072,
      1.015378653529472,
      5.994188864261541,
      -0.9377377141453384,
      2.0045401929585545,
      4.216746845961264,
      -1.0649223918477826,
      -2.0373445042953415,
      -0.1899539281567419,
      -2.0373667996896985,
      -3.2596151969749654,
      0.6633070676916282,
      2.807652313108878,
      -1.3079609428826184,
      3.8517473988150353,
      1.2697470976424254,
      -3.774420418075575,
      0.2616123722673781,
      -3.774412323933049,
      -2.6849358368871155,
      1.0154328728442263,
      5.9941875918209355,
      -0.9377567753234978,
      -1.992116894711362,
      -1.9226548167911837,
      0.8604046032193524,
      -1.9226329449703798,
      -0.0670638597880659,
      6.767971130411351,
      3.535152967650136,
      -8.458319042139188,
      1.3882513384445436,
      0.5189327030917223,
      1.3882649908977873,
      0.6341579565285127,
      -1.0620523201465588,
      9.734142003726804,
      1.0963325535385329,
      -0.3379273796023211,
      0.5189233693917684,
      0.7130471538266357,
      -6.990476312853943,
      4.8197813164897845,
      8.795439043031026,
      1.388247295046167,
      0.6341772653029826,
      -1.0620688129193523,
      9.73414080825015,
      1.0962850644330089,
      3.90632168092019,
      -0.8870714801340682,
      5.547276176098467,
      1.6440351874234624,
      -0.7293622825035836,
      -6.526106206460377,
      0.41665291043452596,
      0.9655306803384855,
      2.2949214102199416,
      -0.15129316438738052,
      6.415944990977495,
      -6.511482547302933,
      -26.443233150737814,
      -37.95808931930864,
      -26.442942174121278,
      25.540154887399503,
      27.21648252357405,
      -24.533446822922823,
      27.216324625194577,
      38.96418022589668,
      1.2507419545351577,
      -28.502053847281253,
      -3.737656026462043,
      -8.076882202694293,
      19.54089313533707,
      21.773580917654105,
      19.541312202632817,
      0.5194961345799167,
      -18.53183182420363,
      2.2613058384991054,
      -18.531833469078258,
      -18.991845619971503,
      -0.08275722277082428,
      -8.316454852619021,
      -8.106200956489985,
      24.452538144827315,
      30.47435219529828,
      24.452250351124604,
      12.614738060108035,
      -30.196871404951146,
      -6.218946128306562,
      -30.19686682423858,
      -24.074301811831702,
      3.6444471166921697,
      -10.605737438004118,
      8.483352305228244,
      64.42631103129546,
      30.47420734310584,
      -13.237236506525772,
      -29.014153552330196,
      3.1749646721480818,
      -29.015890014678288,
      -74.4976604995113,
      -7.862976819128936,
      4.317209564701188,
      3.4826306097438904,
      24.43558359975545,
      12.61479069617224,
      -30.196879332579723,
      -6.219307155152906,
      -30.196880900495824,
      -24.07169414060349,
      3.595865670532292,
      -10.605737168471599,
      8.485543585553508,
      12.099032646415058,
      -11.990305303173226,
      -22.30625390482281,
      -11.990751532426208,
      3.007682240931464,
      4.894921599058352,
      22.453961138363,
      -22.125519887070112,
      19.38350268709147,
      5.845441426455215,
      19.390512313436357,
      22.867790827136734,
      -3.6122199729388798,
      21.691715486720454,
      -8.071159985017337,
      6.850557025697624,
      5.8456307124066065,
      -18.644155261416838,
      -5.5281009714719636,
      28.89762779604951,
      22.60249109495122,
      19.390530974889533,
      22.86778707340147,
      -3.609593608670974,
      21.691714589952497,
      -8.070680879298527,
      58.86562510501844,
      7.240976866794559,
      47.03435283199034,
      -3.0017528002171043,
      -10.574150531704365,
      20.621834248544534,
      -2.1098969216802925,
      10.619063190994988,
      -0.31758369092921235,
      -6.417415703953901,
      1.5807264058292079,
      -26.878778250344425,
      -24.559451410717262,
      -26.87883069599288,
      4.786827516808128,
      24.71035365423846,
      -4.090125085621737,
      24.710320417371356,
      25.25516848552998,
      -4.448964223555977,
      34.32640696309811,
      4.017610229325416,
      1.7680603556710077,
      -17.895781975454025,
      1.7680715901340749,
      -7.979045421162526,
      -10.884073313406155,
      1.5279933251148856,
      -10.884073077566763,
      11.442504996073804,
      -8.785603070317304,
      -22.44880577647497,
      -5.457542573427244,
      -54.01774863411033,
      -17.89853580159355,
      -15.938403260305654,
      13.08850250208394,
      22.21605110979218,
      13.088692923343359,
      60.31252582085482,
      -8.5997742346608,
      -15.485367387593161,
      18.22825771258385,
      1.7680697180237261,
      -7.976057976753573,
      -10.884541089833162,
      1.5277913172959312,
      -10.884068093162266,
      11.442362738563988,
      -8.788025875112027,
      -22.448742938727342,
      -5.451959940323496,
      -5.651802166730005,
      7.926946391071721,
      19.374718223540746,
      7.928446215462096,
      29.700350282281544,
      -2.180745048746847,
      -23.948553053807206,
      14.589910904107926,
      11.430392580164849,
      -1.6816888059582196,
      11.436862112688779,
      -6.84061671502344,
      9.082581668374415,
      -18.37457998549261,
      4.849560368299586,
      -9.674009056345586,
      -1.6823206955368581,
      -12.493009270090537,
      2.5413872136987457,
      -33.979474860523815,
      -15.17418061421537,
      11.436867452241986,
      -6.841239395106026,
      9.083445525371145,
      -18.374582163126924,
      4.851961692895716,
      -43.09712637524203,
      8.956142189105176,
      -42.44273116528047,
      -18.832727080631575,
      3.7230187415971847,
      -60.826740384546866,
      -0.04574374322723931,
      -1.2546671729205168,
      26.516831482639674,
      5.860294926440621,
      -17.334363577323472,
      -16.16631898895598,
      -17.493158305301233,
      -4.82192373547736,
      29.73932102044982,
      0.9672295587799759,
      29.739316994377305,
      12.239641803086615,
      10.106203322464907,
      -0.11874883144246084,
      -18.008348579373987,
      -16.53220380385562,
      -16.131532503421358,
      -5.969290743059584,
      17.962493949032385,
      2.0938754218305493,
      17.962541643732706,
      12.857379759032655,
      -1.118407347284124,
      -17.434819751700033,
      -1.3136721423495024,
      -17.49334170119691,
      -4.812804079559832,
      29.73913843932672,
      0.9707593901111986,
      29.739276668363715,
      12.236177918566838,
      10.051234409039221,
      -0.11872341360908156,
      -17.77476317010177,
      -2.268201080508092,
      4.73852114319078,
      -0.36924070429955,
      4.738255400815347,
      3.399616280185499,
      -3.2008283897375507,
      -35.03699780434366,
      4.047597107699012,
      -27.038760447094717,
      1.153187647878014,
      -27.038770785396533,
      -12.08506381503377,
      -14.388342130713255,
      -19.2187486705873,
